<?xml version="1.0"?>
<opencv_storage>
<stage8>
  <maxWeakCount>5</maxWeakCount>
  <stageThreshold>-1.1641836166381836e+00</stageThreshold>
  <weakClassifiers>
    <_>
      <internalNodes>
        0 -1 2549472 2.3448457941412926e-02</internalNodes>
      <leafValues>
        -7.2222220897674561e-01 6.4601767063140869e-01</leafValues></_>
    <_>
      <internalNodes>
        0 -1 1665004 -7.7806236222386360e-03</internalNodes>
      <leafValues>
        5.3575903177261353e-01 -8.1361204385757446e-01</leafValues></_>
    <_>
      <internalNodes>
        0 -1 103938 -4.3108445405960083e-01</internalNodes>
      <leafValues>
        5.7099914550781250e-01 -5.7931917905807495e-01</leafValues></_>
    <_>
      <internalNodes>
        0 -1 163001 2.1266900002956390e-03</internalNodes>
      <leafValues>
        -7.1339732408523560e-01 4.6893286705017090e-01</leafValues></_>
    <_>
      <internalNodes>
        0 -1 294893 8.4013980813324451e-04</internalNodes>
      <leafValues>
        -7.2686833143234253e-01 5.1404881477355957e-01</leafValues></_></weakClassifiers></stage8>
</opencv_storage>
